{
  "layers" : [ {
    "neurons" : [ {
      "neuronInput" : 1.0,
      "neuronOutput" : 1.0,
      "nodeDelta" : 1.2868941893759359E-5
    }, {
      "neuronInput" : 1.0,
      "neuronOutput" : 1.0,
      "nodeDelta" : 6.686258289680561E-7
    }, {
      "neuronInput" : 1.0,
      "neuronOutput" : 1.0,
      "nodeDelta" : 1.0956210506986998E-6
    } ],
    "numberOfNeurons" : 3,
    "weights" : [ [ 1.6488841497355677, -0.24982854509064484, -0.449983149735947 ], [ -0.26542626995258306, 0.7453885765869773, -0.2188839249830698 ], [ 0.4478504351800785, 0.34636505128311057, 0.6130855060290187 ], [ 0.5412881064099742, -0.2779897404202686, 0.19313798363553222 ], [ 0.8892029743546903, 0.0689066852254471, 0.397232035885751 ], [ 0.8097038046329916, -0.027870022877821133, -0.23392620621931004 ], [ 0.7746506089649277, -0.02830780611716743, -0.23002685958671779 ], [ 0.7836232932002619, 0.5866235808493399, -0.41942662656635127 ], [ 0.38681765317954325, 0.7468640090845197, 0.5946006982303201 ] ],
    "weightDelta" : [ [ 7.062134914775555E-6, 3.040155981817115E-5, 6.038479778305127E-5 ], [ -2.217331361328623E-6, -7.654312102290692E-6, -1.4397426413095061E-5 ], [ -2.1148246251386596E-6, 9.58950837227594E-6, 9.308339059436E-6 ], [ -1.0713570457230841E-5, 4.285175843870093E-5, 2.356035739055789E-5 ], [ -1.3679332182254665E-6, 3.812366775617498E-5, 4.3931136652576485E-5 ], [ -1.9382088586332414E-5, 5.1857346388316395E-5, 2.3957886926657248E-5 ], [ -7.302638940531055E-6, 3.634399373477786E-5, 2.788797872706747E-5 ], [ -9.880997400958456E-6, 2.5726729967945855E-5, 1.7101340716867363E-5 ], [ 1.337693579298751E-5, 5.935878363964672E-6, 2.5978332833282935E-5 ] ],
    "gradients" : [ [ -3.7437739126803335E-5, -3.7437739126803335E-5, -3.7437739126803335E-5 ], [ 6.579816482160892E-6, 6.579816482160892E-6, 6.579816482160892E-6 ], [ 3.212204549148565E-6, 3.212204549148565E-6, 3.212204549148565E-6 ], [ 4.6092660212676526E-5, 4.6092660212676526E-5, 4.6092660212676526E-5 ], [ 2.9719253364235676E-6, 2.9719253364235676E-6, 2.9719253364235676E-6 ], [ 5.1776312926760723E-5, 5.1776312926760723E-5, 5.1776312926760723E-5 ], [ 2.364103676145887E-5, 2.364103676145887E-5, 2.364103676145887E-5 ], [ 9.084498327078068E-6, 9.084498327078068E-6, 9.084498327078068E-6 ], [ -5.866986299841174E-6, -5.866986299841174E-6, -5.866986299841174E-6 ] ]
  }, {
    "neurons" : [ {
      "neuronInput" : 0.9489746064164598,
      "neuronOutput" : 0.7393184817823839,
      "nodeDelta" : -3.7437739126803335E-5
    }, {
      "neuronInput" : 0.2611026507212012,
      "neuronOutput" : 0.25532658957041293,
      "nodeDelta" : 6.579816482160892E-6
    }, {
      "neuronInput" : 1.4072842094694011,
      "neuronOutput" : 0.8869160314790219,
      "nodeDelta" : 3.212204549148565E-6
    }, {
      "neuronInput" : 0.45638065107986575,
      "neuronOutput" : 0.42712975616506105,
      "nodeDelta" : 4.6092660212676526E-5
    }, {
      "neuronInput" : 1.355261008594698,
      "neuronOutput" : 0.8752893528885242,
      "nodeDelta" : 2.9719253364235676E-6
    }, {
      "neuronInput" : 0.5478511423911318,
      "neuronOutput" : 0.4989079548495307,
      "nodeDelta" : 5.1776312926760723E-5
    }, {
      "neuronInput" : 0.5162590139275212,
      "neuronOutput" : 0.4748075534929633,
      "nodeDelta" : 2.364103676145887E-5
    }, {
      "neuronInput" : 0.9507873004099667,
      "neuronOutput" : 0.7401392711847756,
      "nodeDelta" : 9.084498327078068E-6
    }, {
      "neuronInput" : 1.728237069347393,
      "neuronOutput" : 0.938847255737376,
      "nodeDelta" : -5.866986299841174E-6
    } ],
    "numberOfNeurons" : 9,
    "weights" : [ [ 1.3614537174549748, -0.2516823775843408, 0.3776678684463619, 0.5053936685055255, 0.8784740786089807, 0.6899166431028935, 0.5909893367116912, 0.4376873671977215, 0.6670259426855584 ], [ -0.6262025795599717, 0.055274340757255874, 0.11439140152664522, 0.40411413120739825, 0.07961610780308352, 0.499181068793022, 0.22398620639524547, 0.1399322484554119, -0.3772429669174842 ], [ -0.04002815459442925, 0.010251250229907196, 0.4895074368613656, -0.27365719257181914, -0.16245040887175574, 0.01467826946197512, 0.39420684954750335, -0.14491029934874372, -0.25064793284095577 ] ],
    "weightDelta" : [ [ -3.50901268384034E-5, 2.2597443611191276E-5, 4.454886130778896E-5, -2.0804023670225953E-6, 2.6841258128556442E-5, -1.5327594317572383E-5, -1.5128353595156342E-5, 4.679609929548425E-6, 5.100625331453346E-5 ], [ -5.4229302259358966E-5, 5.708305163544025E-5, -3.42312203977628E-5, -4.3314987204194164E-5, -4.379835397195975E-5, -3.1466158210596174E-5, -3.019318333553004E-5, -2.363778067230041E-6, -2.8135855430612143E-5 ], [ 5.578725300080995E-6, -3.685386101051515E-6, 2.8084097205204515E-6, 3.5948918662564977E-6, 3.791717315440753E-6, 3.2490466317745074E-6, 3.119707430687231E-6, 1.3686540265198663E-6, 2.36575761187588E-6 ] ],
    "gradients" : [ [ 1.2759926135013236E-6, 4.406691437455876E-7, 1.5307317926569176E-6, 7.371848902779933E-7, 1.5106652633240342E-6, 8.61067159676978E-7, 8.194721842081394E-7, 1.2774092170903032E-6, 1.62036009249867E-6 ], [ 1.0037720531755314E-4, 3.4665668633837514E-5, 1.204165116724402E-4, 5.7991369468343135E-5, 1.1883795854168929E-4, 6.77366891975419E-5, 6.446457982274113E-5, 1.0048864382260405E-4, 1.2746720942749382E-4 ], [ -1.711790132845703E-6, -5.911735570657982E-7, -2.053531933475106E-6, -9.88960130261367E-7, -2.026611960311442E-6, -1.1551526647226925E-6, -1.09935150425348E-6, -1.71369055767584E-6, -2.1737715317842606E-6 ] ]
  }, {
    "neurons" : [ {
      "neuronInput" : 3.8369517850224013,
      "neuronOutput" : 0.9990708320794534,
      "nodeDelta" : 1.7259038492113713E-6
    }, {
      "neuronInput" : -1.3576991548025497E-4,
      "neuronOutput" : -1.3576991464606597E-4,
      "nodeDelta" : 1.3576991214335536E-4
    }, {
      "neuronInput" : 2.3153622897842396E-6,
      "neuronOutput" : 2.3153622897780334E-6,
      "nodeDelta" : -2.315362289765621E-6
    } ],
    "numberOfNeurons" : 3,
    "weights" : null,
    "weightDelta" : null,
    "gradients" : null
  } ]
}