{
  "layers" : [ {
    "neurons" : [ {
      "neuronInput" : 1.0,
      "neuronOutput" : 1.0,
      "nodeDelta" : 298.26940640973527
    }, {
      "neuronInput" : 0.0,
      "neuronOutput" : 0.0,
      "nodeDelta" : -2178.306432901864
    }, {
      "neuronInput" : 0.0,
      "neuronOutput" : 0.0,
      "nodeDelta" : 1061.3455389554374
    }, {
      "neuronInput" : -1.0,
      "neuronOutput" : -1.0,
      "nodeDelta" : 68.78440619409578
    }, {
      "neuronInput" : 0.0,
      "neuronOutput" : 0.0,
      "nodeDelta" : 3597.1123264572693
    }, {
      "neuronInput" : -1.0,
      "neuronOutput" : -1.0,
      "nodeDelta" : -763.1989862905358
    }, {
      "neuronInput" : 1.0,
      "neuronOutput" : 1.0,
      "nodeDelta" : 9.124255636162555
    }, {
      "neuronInput" : -1.0,
      "neuronOutput" : -1.0,
      "nodeDelta" : -395.0336549608672
    }, {
      "neuronInput" : 1.0,
      "neuronOutput" : 1.0,
      "nodeDelta" : -259.6758100705406
    }, {
      "neuronInput" : 1.0,
      "neuronOutput" : 1.0,
      "nodeDelta" : 59413.53725893513
    } ],
    "numberOfNeurons" : 10,
    "weights" : [ [ 0.3439735618322332, 0.48695090648205497, 0.9016992232639891, 0.3487664593613672, 0.44493450419866937, 0.4755097008646731, 0.34436704587941647, 0.43499772534068304, 0.7188008727793145, 0.20124049339194078 ], [ 0.3439735618322332, 0.48695090648205497, 0.9016992232639891, 0.3487664593613672, 0.44493450419866937, 0.4755097008646731, 0.34436704587941647, 0.43499772534068304, 0.7188008727793145, 0.20124049339194078 ], [ 0.3439735618322332, 0.48695090648205497, 0.9016992232639891, 0.3487664593613672, 0.44493450419866937, 0.4755097008646731, 0.34436704587941647, 0.43499772534068304, 0.7188008727793145, 0.20124049339194078 ], [ 0.3439735618322332, 0.48695090648205497, 0.9016992232639891, 0.3487664593613672, 0.44493450419866937, 0.4755097008646731, 0.34436704587941647, 0.43499772534068304, 0.7188008727793145, 0.20124049339194078 ], [ -12315.922095245834, 37774.25002679083, -18405.133102645726, -2840.226860234581, -62378.164012521105, 31513.16034499988, -376.8346942486253, 16311.259814536892, 10722.110578045713, -2453243.4084949186 ] ],
    "weightDelta" : [ [ -4.0311181543152926E-4, -3.239647824918598E-5, -4.4853432786961855E-4, 4.031118154315193E-4, -4.475502916520387E-4, 0.001331592913202373, -4.0311181543151983E-4, 4.0311181543151983E-4, -4.0311181543151983E-4, -4.0311181543151983E-4 ], [ -4.0311181543152926E-4, -3.239647824918598E-5, -4.4853432786961855E-4, 4.031118154315193E-4, -4.475502916520387E-4, 0.001331592913202373, -4.0311181543151983E-4, 4.0311181543151983E-4, -4.0311181543151983E-4, -4.0311181543151983E-4 ], [ -4.0311181543152926E-4, -3.239647824918598E-5, -4.4853432786961855E-4, 4.031118154315193E-4, -4.475502916520387E-4, 0.001331592913202373, -4.0311181543151983E-4, 4.0311181543151983E-4, -4.0311181543151983E-4, -4.0311181543151983E-4 ], [ -4.0311181543152926E-4, -3.239647824918598E-5, -4.4853432786961855E-4, 4.031118154315193E-4, -4.475502916520387E-4, 0.001331592913202373, -4.0311181543151983E-4, 4.0311181543151983E-4, -4.0311181543151983E-4, -4.0311181543151983E-4 ], [ -0.01739884880559541, -1.1043918064852201E-4, 9.852894077544573E-5, 0.01739884880559542, 9.896306999278852E-5, 0.017311795975475698, -0.01739884880559542, 0.01739884880559542, -0.01739884880559542, -0.01739884880559542 ] ],
    "gradients" : [ [ -0.002835555590842184, -0.0, -0.0, 0.002835555590842184, -0.0, 0.002835555590842184, -0.002835555590842184, 0.002835555590842184, -0.002835555590842184, -0.002835555590842184 ], [ -0.002835555590842184, -0.0, -0.0, 0.002835555590842184, -0.0, 0.002835555590842184, -0.002835555590842184, 0.002835555590842184, -0.002835555590842184, -0.002835555590842184 ], [ -0.002835555590842184, -0.0, -0.0, 0.002835555590842184, -0.0, 0.002835555590842184, -0.002835555590842184, 0.002835555590842184, -0.002835555590842184, -0.002835555590842184 ], [ -0.002835555590842184, -0.0, -0.0, 0.002835555590842184, -0.0, 0.002835555590842184, -0.002835555590842184, 0.002835555590842184, -0.002835555590842184, -0.002835555590842184 ], [ -0.057666291230544856, -0.0, -0.0, 0.057666291230544856, -0.0, 0.057666291230544856, -0.057666291230544856, 0.057666291230544856, -0.057666291230544856, -0.057666291230544856 ] ]
  }, {
    "neurons" : [ {
      "neuronInput" : 0.3528583521219731,
      "neuronOutput" : 0.3389080363469636,
      "nodeDelta" : -0.002835555590842184
    }, {
      "neuronInput" : 0.3528583521219731,
      "neuronOutput" : 0.3389080363469636,
      "nodeDelta" : -0.002835555590842184
    }, {
      "neuronInput" : 0.3528583521219731,
      "neuronOutput" : 0.3389080363469636,
      "nodeDelta" : -0.002835555590842184
    }, {
      "neuronInput" : 0.3528583521219731,
      "neuronOutput" : 0.3389080363469636,
      "nodeDelta" : -0.002835555590842184
    }, {
      "neuronInput" : 1.0,
      "neuronOutput" : 1.0,
      "nodeDelta" : -0.057666291230544856
    } ],
    "numberOfNeurons" : 5,
    "weights" : [ [ -0.05151548905484744, -0.05151548905484744, -0.05151548905484744, -0.05151548905484744, 0.04078908160028753 ], [ 0.008820441701468146, 0.008820441701468146, 0.008820441701468146, 0.008820441701468146, 0.5328430226167524 ], [ 3.0613282823715185E-4, 3.0613282823715185E-4, 3.0613282823715185E-4, 3.0613282823715185E-4, -2.3781058440013161E-4 ], [ -0.0060273833548708045, -0.0060273833548708045, -0.0060273833548708045, -0.0060273833548708045, 0.0049469336466808865 ], [ 0.09312404675301625, 0.09312404675301625, 0.09312404675301625, 0.09312404675301625, 0.46099146845239536 ], [ -0.025659394585394124, -0.025659394585394124, -0.025659394585394124, -0.025659394585394124, 0.19538607270585234 ], [ 1.4073811908948645E-17, 1.4073811908948645E-17, 1.4073811908948645E-17, 1.4073811908948645E-17, -6.333968626138018E-18 ], [ 4.0099242210353586E-18, 4.0099242210353586E-18, 4.0099242210353586E-18, 4.0099242210353586E-18, 1.0482829955550494E-17 ], [ -3.622973253796439E-18, -3.622973253796439E-18, -3.622973253796439E-18, -3.622973253796439E-18, -9.374748019217056E-19 ], [ 0.5, 0.5, 0.5, 0.5, 0.5 ] ],
    "weightDelta" : [ [ 0.005187492040173527, 0.005187492040173527, 0.005187492040173527, 0.005187492040173527, 0.013554392999122809 ], [ -0.03979315460018257, -0.03979315460018257, -0.03979315460018257, -0.03979315460018257, -0.10857098979002898 ], [ -3.183426191349425E-5, -3.183426191349425E-5, -3.183426191349425E-5, -3.183426191349425E-5, -8.36102873140011E-5 ], [ 5.784419074823962E-4, 5.784419074823962E-4, 5.784419074823962E-4, 5.784419074823962E-4, 0.0014904982283514359 ], [ 0.0645737883068149, 0.0645737883068149, 0.0645737883068149, 0.0645737883068149, 0.18393848043262342 ], [ -0.024473354065675353, -0.024473354065675353, -0.024473354065675353, -0.024473354065675353, -0.07778138828688898 ], [ -1.5465566198817043E-51, -1.5465566198817043E-51, -1.5465566198817043E-51, -1.5465566198817043E-51, 2.6056010566198498E-51 ], [ 0.0, 0.0, 0.0, 0.0, 0.0 ], [ 0.0, 0.0, 0.0, 0.0, 0.0 ], [ 0.0, 0.0, 0.0, 0.0, 0.0 ] ],
    "gradients" : [ [ 0.016766121404418962, 0.016766121404418962, 0.016766121404418962, 0.016766121404418962, 0.04947100571924569 ], [ -0.12984735156360588, -0.12984735156360588, -0.12984735156360588, -0.12984735156360588, -0.3831344720037036 ], [ -1.0301405189589677E-4, -1.0301405189589677E-4, -1.0301405189589677E-4, -1.0301405189589677E-4, -3.039587169613003E-4 ], [ 0.0018634560111613588, 0.0018634560111613588, 0.0018634560111613588, 0.0018634560111613588, 0.005498411991781776 ], [ 0.21332989588340528, 0.21332989588340528, 0.21332989588340528, 0.21332989588340528, 0.6294624883577701 ], [ -0.08352386636027141, -0.08352386636027141, -0.08352386636027141, -0.08352386636027141, -0.24644994335502346 ], [ 0.0, 0.0, 0.0, 0.0, 0.0 ], [ 0.0, 0.0, 0.0, 0.0, 0.0 ], [ 0.0, 0.0, 0.0, 0.0, 0.0 ], [ 0.0, 0.0, 0.0, 0.0, 0.0 ] ]
  }, {
    "neurons" : [ {
      "neuronInput" : -0.049633695310565495,
      "neuronOutput" : -0.049592977835639165,
      "nodeDelta" : 0.04947100571924569
    }, {
      "neuronInput" : 0.7073161662562072,
      "neuronOutput" : 0.6089911122038394,
      "nodeDelta" : -0.3831344720037036
    }, {
      "neuronInput" : 3.039587544052803E-4,
      "neuronOutput" : 3.03958745044328E-4,
      "nodeDelta" : -3.039587169613003E-4
    }, {
      "neuronInput" : -0.0054986336541317056,
      "neuronOutput" : -0.0054985782377902056,
      "nodeDelta" : 0.005498411991781776
    }, {
      "neuronInput" : 0.3157566361285735,
      "neuronOutput" : 0.30566502571092435,
      "nodeDelta" : 0.6294624883577701
    }, {
      "neuronInput" : 0.271559626338478,
      "neuronOutput" : 0.2650754732004378,
      "nodeDelta" : -0.24644994335502346
    }, {
      "neuronInput" : 1.2744943205775168E-17,
      "neuronOutput" : 0.0,
      "nodeDelta" : 0.0
    }, {
      "neuronInput" : 1.5918812130155377E-17,
      "neuronOutput" : 0.0,
      "nodeDelta" : 0.0
    }, {
      "neuronInput" : -5.848893806648587E-18,
      "neuronOutput" : 0.0,
      "nodeDelta" : 0.0
    }, {
      "neuronInput" : 1.0,
      "neuronOutput" : 1.0,
      "nodeDelta" : 0.0
    } ],
    "numberOfNeurons" : 10,
    "weights" : null,
    "weightDelta" : null,
    "gradients" : null
  } ],
  "numberOfInputs" : 9,
  "numberOfOutputs" : 9,
  "numberOfLayers" : 3
}