{
  "layers" : [ {
    "neurons" : [ {
      "neuronInput" : 1.0,
      "neuronOutput" : 1.0,
      "nodeDelta" : -1.3408551837184781E11
    }, {
      "neuronInput" : 0.0,
      "neuronOutput" : 0.0,
      "nodeDelta" : 2.7398300675056052E11
    }, {
      "neuronInput" : 0.0,
      "neuronOutput" : 0.0,
      "nodeDelta" : 1.2722460395866083E11
    }, {
      "neuronInput" : 0.0,
      "neuronOutput" : 0.0,
      "nodeDelta" : 9.185293618089635E10
    }, {
      "neuronInput" : -1.0,
      "neuronOutput" : -1.0,
      "nodeDelta" : 5.237930510973154E9
    }, {
      "neuronInput" : -1.0,
      "neuronOutput" : -1.0,
      "nodeDelta" : -5.611971151133427E10
    }, {
      "neuronInput" : 1.0,
      "neuronOutput" : 1.0,
      "nodeDelta" : -3.602643741584811E9
    }, {
      "neuronInput" : -1.0,
      "neuronOutput" : -1.0,
      "nodeDelta" : -6.003824162524872E10
    }, {
      "neuronInput" : 1.0,
      "neuronOutput" : 1.0,
      "nodeDelta" : 4.153540290831119E10
    }, {
      "neuronInput" : 1.0,
      "neuronOutput" : 1.0,
      "nodeDelta" : -1.9355635938135577E11
    } ],
    "numberOfNeurons" : 10,
    "weights" : [ [ -4.279546862717228, 2.1966484872393504, 0.4963517237971, 0.9399518839168288, -0.020085420293725523, 1.5873645886667964, 1.4640271837634107, 0.7557632263139454, 0.8994057768597099, -11.6435651465603 ], [ 2.3386993876287354, -0.06876015625862167, 0.31165019225720725, 0.6301512263558402, 0.2795431405830862, -0.023370772473480413, 1.0019868494318454, 0.4240517632835297, 0.26615558250043253, 9.647406706412928 ], [ 2.165991073095045, -0.265418541599816, 0.30638394597289315, 0.42316263139126975, 0.34681601007811885, 0.2743137428088858, 0.7559494244796058, 0.17258015099859664, 0.7850379943284395, 9.653696187316399 ], [ 2.416344082989916, 0.08959637189765528, 0.018581284810379812, 0.11244267650375936, 0.4536229856778826, 0.1717390869390802, 0.38965105740462674, 0.43292066497143294, 0.6340686084811397, 9.655450580648985 ], [ 1.9729222375620206, -0.18707232147489583, 0.055842359356535094, 0.2514728278046701, 0.23432619173169, 0.37475459554599216, 1.3532195029981209, 0.45583469585382974, 0.755636847754187, 9.622094142578488 ], [ 2.1724485455416613, -0.3402442287296711, 0.19517808272692116, 0.21723321011256028, 0.09372356670322196, 0.30379948166822657, 1.1019198361754254, 0.3719514707447705, 0.4364518264768567, 9.635699802830121 ], [ 2.4426478056466645, 0.011350575045543496, 0.4790904348173713, 0.12116969136846659, 0.5027010313665828, 0.43600072376886256, 0.7870854450086062, 0.0024301071305477756, 0.8888257636904645, 9.65567978373509 ], [ 2.108993879858421, -0.4498976707575963, 0.19968241769333786, 0.14746059257311636, 0.12536535280845607, 0.384808658452448, 0.5863594708410699, 0.5578402573057607, 0.5968205784603703, 9.640497716261379 ], [ -2.8100588167569365, 2.8351618857101095, 1.3416270062192919, 1.617762954866711, 0.28434738234366225, 1.935322634255033, -2.63686917615026, 1.883282151540015, -0.22539321185032538, -11.580694822514795 ], [ 2.0802025798476005E8, -1.7851330109964097E8, -8.289306466440107E7, -5.984669363650137E7, -8125968.532067233, 8.706446458260708E7, 5588633.934387456, 9.314394725635725E7, -6.443827074512154E7, 3.0028343482181066E8 ] ],
    "weightDelta" : [ [ 4.534382793212387E-10, -3.483863778610138E-13, 1.7415542174585553E-14, 2.635039049363502E-14, -4.5274143612320106E-10, -4.53116448913585E-10, 5.192376487669101E-10, -5.192549165748354E-10, 4.5274149396866544E-10, 4.534380146302438E-10 ], [ 4.188643002158688E-9, 5.103631057319804E-10, -1.363265166127868E-11, -1.0063436362520378E-10, -5.209409925768312E-9, -4.607167516421624E-9, -7.659913660332042E-9, 7.691804874359468E-9, 5.1999471355583264E-9, 4.188643264862643E-9 ], [ 3.362579634425358E-9, 1.5339681357741442E-9, -5.08951513381761E-11, -2.526311274152817E-10, -6.430632665407686E-9, -4.264776101702839E-9, -8.870790693703231E-9, 8.547403041050899E-9, 6.4257749283168145E-9, 3.362579893844557E-9 ], [ -1.469815981080124E-8, 3.872864176086614E-9, -4.3654348425603924E-11, -2.0712416513295977E-10, 6.952376186565749E-9, 1.1610663292726712E-8, -2.4766104545178683E-8, 2.4234866957037816E-8, -6.955727742878406E-9, -1.4698159552285129E-8 ], [ 1.1748684550220589E-8, 1.6519893674609243E-9, -2.0311178323573727E-11, -1.1750443631788958E-10, -1.5052863466207002E-8, -1.2893792197104457E-8, -8.12574850229704E-9, 7.79046354772821E-9, 1.501908231484024E-8, 1.1748684826566196E-8 ], [ 8.032708043957019E-9, 8.087609130399777E-10, -1.4934038246568432E-11, -6.100015350654546E-11, -9.650304415040471E-9, -8.596873905490324E-9, -7.948331098004143E-9, 7.793264126378916E-9, 9.63671052691214E-9, 8.03270831288768E-9 ], [ 5.156912884543851E-9, 1.2430015425400754E-9, -6.062648798522216E-11, -1.1648472758921263E-10, -7.642995842192617E-9, -5.663562268359963E-9, -5.592240494120497E-9, 5.0366460768975895E-9, 7.639349316265997E-9, 5.156913142940093E-9 ], [ -1.7168877330571466E-8, 4.056732493933161E-9, -4.908485183627232E-11, -1.7374873115640705E-10, 9.055307962304929E-9, 1.4052906726784133E-8, -3.353379046830369E-8, 3.282177602405034E-8, -9.061221825204725E-9, -1.716887706421256E-8 ], [ -3.9309276501775275E-11, -8.321331528544684E-13, 2.308522998736382E-17, 2.9497328548774423E-18, 4.105346821051709E-11, 4.0221198901435716E-11, -1.1939065214373942E-12, -1.062412103728826E-16, -3.993927072963814E-11, -3.930957669138484E-11 ], [ -272.4605977723837, 52.774280956355156, -1.2686161169658414, -4.984941150989104, 166.91163425500508, 236.47817029633, -514.4779847765393, 504.0154875451967, -166.98743323600894, -272.46059772353715 ] ],
    "gradients" : [ [ 1.7296216321978399E-9, 0.0, 0.0, 0.0, -1.7296216321978399E-9, -1.7296216321978399E-9, 1.7296216321978399E-9, -1.7296216321978399E-9, 1.7296216321978399E-9, 1.7296216321978399E-9 ], [ -2.3694252320356666E-8, -0.0, -0.0, -0.0, 2.3694252320356666E-8, 2.3694252320356666E-8, -2.3694252320356666E-8, 2.3694252320356666E-8, -2.3694252320356666E-8, -2.3694252320356666E-8 ], [ -2.4031854778878446E-8, -0.0, -0.0, -0.0, 2.4031854778878446E-8, 2.4031854778878446E-8, -2.4031854778878446E-8, 2.4031854778878446E-8, -2.4031854778878446E-8, -2.4031854778878446E-8 ], [ -6.93287147583877E-8, -0.0, -0.0, -0.0, 6.93287147583877E-8, 6.93287147583877E-8, -6.93287147583877E-8, 6.93287147583877E-8, -6.93287147583877E-8, -6.93287147583877E-8 ], [ -2.0809751505874012E-8, -0.0, -0.0, -0.0, 2.0809751505874012E-8, 2.0809751505874012E-8, -2.0809751505874012E-8, 2.0809751505874012E-8, -2.0809751505874012E-8, -2.0809751505874012E-8 ], [ -2.3552150431813727E-8, -0.0, -0.0, -0.0, 2.3552150431813727E-8, 2.3552150431813727E-8, -2.3552150431813727E-8, 2.3552150431813727E-8, -2.3552150431813727E-8, -2.3552150431813727E-8 ], [ -1.4112597482169387E-8, -0.0, -0.0, -0.0, 1.4112597482169387E-8, 1.4112597482169387E-8, -1.4112597482169387E-8, 1.4112597482169387E-8, -1.4112597482169387E-8, -1.4112597482169387E-8 ], [ -9.790247029219832E-8, -0.0, -0.0, -0.0, 9.790247029219832E-8, 9.790247029219832E-8, -9.790247029219832E-8, 9.790247029219832E-8, -9.790247029219832E-8, -9.790247029219832E-8 ], [ 0.0, 0.0, 0.0, 0.0, -0.0, -0.0, 0.0, -0.0, 0.0, 0.0 ], [ -1534.8039841549648, -0.0, -0.0, -0.0, 1534.8039841549648, 1534.8039841549648, -1534.8039841549648, 1534.8039841549648, -1534.8039841549648, -1534.8039841549648 ] ]
  }, {
    "neurons" : [ {
      "neuronInput" : -14.882721446645391,
      "neuronOutput" : -0.9999999999997633,
      "nodeDelta" : 1.7296216321978399E-9
    }, {
      "neuronInput" : 13.574024386538714,
      "neuronOutput" : 0.9999999999967583,
      "nodeDelta" : -2.3694252320356666E-8
    }, {
      "neuronInput" : 13.56696476890574,
      "neuronOutput" : 0.9999999999967121,
      "nodeDelta" : -2.4031854778878446E-8
    }, {
      "neuronInput" : 13.03723169585233,
      "neuronOutput" : 0.999999999990515,
      "nodeDelta" : -6.93287147583877E-8
    }, {
      "neuronInput" : 13.63895719721441,
      "neuronOutput" : 0.9999999999971529,
      "nodeDelta" : -2.0809751505874012E-8
    }, {
      "neuronInput" : 13.577045463700136,
      "neuronOutput" : 0.9999999999967778,
      "nodeDelta" : -2.3552150431813727E-8
    }, {
      "neuronInput" : 13.833106915183986,
      "neuronOutput" : 0.9999999999980692,
      "nodeDelta" : -1.4112597482169387E-8
    }, {
      "neuronInput" : 12.864657509717334,
      "neuronOutput" : 0.9999999999866054,
      "nodeDelta" : -9.790247029219832E-8
    }, {
      "neuronInput" : -20.355968195210004,
      "neuronOutput" : -1.0,
      "nodeDelta" : 0.0
    }, {
      "neuronInput" : 1.0,
      "neuronOutput" : 1.0,
      "nodeDelta" : -1534.8039841549648
    } ],
    "numberOfNeurons" : 10,
    "weights" : [ [ 0.5659795588122526, -0.010272123689682597, 0.17059251276154205, -0.22516121028863506, 0.04230164827544916, -0.21733825677072416, -0.17532731748479105, 0.3111388072099867, 0.450044365724911, 0.10150977915939687 ], [ 0.6870204516715542, 0.2711716062312869, -0.34150333852966164, 0.3550316966895306, -0.4135860710390479, 0.26023365448357977, 0.008463129424758582, -0.031482913791650816, 0.9810448668423735, 0.5232678220039413 ], [ 0.5054251766528957, -0.058782999988860565, -0.07014142283538022, 0.10907500482513521, -0.23854134878036282, -0.32230297509498956, 0.35075782393979166, 0.4431848048721277, 0.3598373907324943, -0.2792484629100082 ], [ 0.9532363684445181, 0.46741130631436945, 0.501147660192633, -0.32276177554867924, 0.1987424899583199, -0.389814091926322, 0.29374518565886876, 0.17316718514946866, 0.9593118710651461, 0.12804377708418208 ], [ 1.400891081660005, 0.5360476675870588, -0.04835375383827797, 0.47546639287744524, 0.3085647050649736, 0.36558818476263444, -0.017950860209963303, -0.19326934169736465, 0.926214529729051, -0.3414335168853247 ], [ 0.7958818757742846, -0.35294238543143597, 0.2233516544804104, 0.23177559858662547, -0.17456796913870748, 0.48759282038054, 0.01639281998080344, -0.38698860700359045, 1.1587784254771587, 0.530623208523522 ], [ 0.8782015954004037, 0.31548092493989666, 0.12644714665340187, -0.030389290176783844, 0.20289502622474628, 0.03203679710962121, -0.2144473860226132, 0.40838784469674627, 0.9432672432001362, -0.02702681869659324 ], [ 0.9501253664837982, 0.6641205091436668, 0.2888539868707577, -0.228194447550072, -0.03424887262868126, -0.013659886323845192, 0.14367080524020048, 0.14060440101598237, 0.7418348418680601, 0.5724075172582567 ], [ 4.564575954790598, 0.39183623416183844, 0.4891672876170859, 0.31847282861534076, 1.195170818665378, 0.9744068957743778, 0.4870736422205281, 0.3415376385740374, 1.1881266638405574, 0.5343845709933323 ], [ 37811.359361058116, -37816.33202339249, -37815.871441224954, -37815.824653666066, -37815.595436164, -37815.7850652854, -37816.31499058613, -37815.98305824356, 37814.96772067596, -37815.8353832401 ] ],
    "weightDelta" : [ [ 0.019917610999162685, -0.019917610999152804, -0.019917610999158123, -0.019917610998978, -0.019917610999215556, -0.0199176109991792, -0.019917610999185542, -0.01991761099890799, 0.019917610999169125, -0.01991761099916888 ], [ 0.0029707711617554334, -0.002970771161700879, -0.0029707711616961067, -0.0029707711617266526, -0.0029707711616506604, -0.002970771161676501, -0.002970771161699088, -0.002970771161707148, 0.0029707711617545747, -0.0029707711617548 ], [ 0.012307247072258172, -0.012307247072271876, -0.012307247072277504, -0.012307247072145016, -0.012307247072333247, -0.012307247072298794, -0.012307247072294768, -0.01230724707210486, 0.012307247072262845, -0.012307247072262597 ], [ -0.017575050779941197, 0.017575050779851102, 0.017575050779849218, 0.01757505077977975, 0.017575050779818184, 0.017575050779831597, 0.017575050779871426, 0.01757505077970238, -0.017575050779944208, 0.017575050779944396 ], [ 0.03298263339069738, -0.032982633390632746, -0.03298263339063267, -0.03298263339038637, -0.03298263339068242, -0.03298263339065276, -0.03298263339068127, -0.032982633390267684, 0.032982633390706215, -0.03298263339070604 ], [ 0.01327243165342513, -0.013272431653475053, -0.013272431653480837, -0.013272431653299463, -0.013272431653575159, -0.013272431653521474, -0.013272431653499778, -0.013272431653264723, 0.013272431653431156, -0.013272431653430717 ], [ -0.012890980392489242, 0.012890980392464401, 0.012890980392466053, 0.012890980392369527, 0.012890980392484505, 0.012890980392471666, 0.012890980392483358, 0.012890980392320922, -0.012890980392492786, 0.012890980392492719 ], [ -0.015197384646395739, 0.015197384646416203, 0.015197384646420347, 0.015197384646253533, 0.015197384646491733, 0.015197384646450431, 0.015197384646441542, 0.015197384646206362, -0.015197384646401484, 0.015197384646401161 ], [ 0.015741410839262913, -0.015741410839254153, -0.015741410839257144, -0.015741410839115108, -0.015741410839300748, -0.015741410839273922, -0.015741410839278568, -0.015741410839060353, 0.015741410839267896, -0.015741410839267708 ], [ -0.017155667404393195, 0.017155667404454573, 0.01715566740444365, 0.01715566740420486, 0.017155667404554528, 0.017155667404505408, 0.017155667404467376, 0.01715566740417218, -0.017155667404399708, 0.017155667404399187 ] ],
    "gradients" : [ [ 0.0929107488698216, -0.09291074886954241, -0.09291074886953812, -0.09291074886896235, -0.09291074886957908, -0.09291074886954423, -0.09291074886966422, -0.0929107488685991, 0.0929107488698436, -0.0929107488698436 ], [ -0.01411253298506065, 0.014112532985018241, 0.01411253298501759, 0.014112532984930135, 0.014112532985023811, 0.014112532985018517, 0.014112532985036742, 0.014112532984874958, -0.014112532985063991, 0.014112532985063991 ], [ 0.0680885782378344, -0.06808857823762979, -0.06808857823762664, -0.0680885782372047, -0.06808857823765666, -0.06808857823763112, -0.06808857823771905, -0.0680885782369385, 0.06808857823785051, -0.06808857823785051 ], [ -0.040837606985770686, 0.040837606985647965, 0.040837606985646084, 0.04083760698539301, 0.040837606985664084, 0.04083760698564876, 0.040837606985701505, 0.040837606985233345, -0.04083760698578035, 0.04083760698578035 ], [ 0.12594556951288652, -0.12594556951250804, -0.12594556951250221, -0.12594556951172173, -0.12594556951255775, -0.1259455695125105, -0.12594556951267316, -0.12594556951122934, 0.12594556951291633, -0.12594556951291633 ], [ 0.08884254043617738, -0.0888425404359104, -0.0888425404359063, -0.08884254043535574, -0.08884254043594547, -0.08884254043591214, -0.08884254043602688, -0.0888425404350084, 0.08884254043619841, -0.08884254043619841 ], [ -0.050533735467466354, 0.050533735467314496, 0.050533735467312164, 0.050533735466999005, 0.050533735467334445, 0.05053373546731549, 0.05053373546738075, 0.050533735466801434, -0.050533735467478316, 0.050533735467478316 ], [ -0.08385339755474212, 0.08385339755449014, 0.08385339755448626, 0.08385339755396662, 0.08385339755452323, 0.08385339755449178, 0.08385339755460007, 0.08385339755363878, -0.08385339755476197, 0.08385339755476197 ], [ 0.07188443611372566, -0.07188443611350964, -0.07188443611350633, -0.07188443611306086, -0.07188443611353802, -0.07188443611351106, -0.07188443611360389, -0.07188443611277981, 0.07188443611374268, -0.07188443611374268 ], [ -0.09664023774258652, 0.09664023774229612, 0.09664023774229165, 0.09664023774169277, 0.09664023774233425, 0.096640237742298, 0.09664023774242281, 0.09664023774131493, -0.0966402377426094, 0.0966402377426094 ] ]
  }, {
    "neurons" : [ {
      "neuronInput" : 0.18059602462439917,
      "neuronOutput" : 0.17865792981665177,
      "nodeDelta" : -0.0929107488698436
    }, {
      "neuronInput" : -0.00676202142639748,
      "neuronOutput" : -0.006761918363955231,
      "nodeDelta" : 0.014112532985063991
    }, {
      "neuronInput" : 0.19181032735871995,
      "neuronOutput" : 0.18949212633920942,
      "nodeDelta" : -0.06808857823785051
    }, {
      "neuronInput" : -0.038617010426767795,
      "neuronOutput" : -0.03859782569586591,
      "nodeDelta" : 0.04083760698578035
    }, {
      "neuronInput" : 0.0873802001717392,
      "neuronOutput" : 0.0871584859594246,
      "nodeDelta" : -0.12594556951291633
    }, {
      "neuronInput" : -0.24669884433689404,
      "neuronOutput" : -0.24181302739217203,
      "nodeDelta" : -0.08884254043619841
    }, {
      "neuronInput" : -0.13699439780284717,
      "neuronOutput" : -0.13614377035764888,
      "nodeDelta" : 0.050533735467478316
    }, {
      "neuronInput" : 0.6896199582083682,
      "neuronOutput" : 0.597737799506065,
      "nodeDelta" : 0.08385339755476197
    }, {
      "neuronInput" : 0.13676140636563294,
      "neuronOutput" : 0.13591509019645578,
      "nodeDelta" : -0.07188443611374268
    }, {
      "neuronInput" : 1.0,
      "neuronOutput" : 1.0,
      "nodeDelta" : 0.0966402377426094
    } ],
    "numberOfNeurons" : 10,
    "weights" : [ [ 0.05824957354819836, -0.026485276089048167, 0.028428817242538453, -0.10202851944409276, -0.18356128949041595, -0.011529999533016116, -0.024784473702301402, -0.10257168792489067, 0.05888872736262632, -0.9668048442499692 ], [ -1.5897538668565306E-17, 3.7342017940792255E-18, 7.329190332871138E-18, -1.8709629539587054E-19, -1.0884208699605163E-18, 2.0046123168769798E-17, -1.2024764057011736E-17, -1.619041803490882E-18, -1.2062950401147917E-17, -1.0 ], [ -0.1075504401455396, 0.01185177520882615, -0.10109905844626949, 0.13575395949781818, 0.0787896050884406, 0.07313406910599704, 0.0674288415371393, 0.06482497699383784, -0.04228617540730537, -1.023181098629846 ], [ -0.15484985720249841, 0.05035201518319632, -0.12108621837606037, 0.11981864708502872, -0.057073541739874986, -0.06367357468928167, 0.06446274489527451, 0.3254238409251697, -0.08654378949229186, -0.4395722419403118 ], [ 0.1099906887110022, -0.04637585133179155, 0.09286618896438449, -0.06511015695441046, -0.01726448880432039, 0.08445683813101723, -0.03934880111020288, -0.18709977688482704, 0.04296633984131139, -0.8621743486377338 ], [ -1.303758109675929E-18, 5.2990033113614535E-18, -1.0054856281638578E-17, -2.915574076883847E-18, -3.421526970467628E-18, -9.057735041496754E-18, 1.748379174376532E-18, 2.3988241524258243E-18, 1.5510515937375131E-18, -1.0 ], [ -0.05446821058866561, 0.05688543937227489, -0.04486059151116525, 0.028609423309239407, 0.029947583710211664, -0.023922095466380563, 4.3811629116670067E-4, 0.1362151942248003, -0.01823194494822249, -0.5135056665032856 ], [ -6.9256810003542664E-18, 2.6753588366035822E-17, 9.135699072876649E-18, -3.390590987176246E-18, -3.819623210845529E-18, 6.38456478028907E-18, 1.6229162121063825E-18, -7.8816693914011995E-19, 9.350796026373497E-18, -1.0 ], [ 0.10072904438541963, -0.007889282822043474, 0.03776604692389289, -0.029267737719816826, 0.3125042081791224, 0.2727248070716088, -0.04726658095549103, -0.2912178015002291, 0.10838254848549879, -0.6733546330190847 ], [ 0.4832472947708205, 0.31604153705072346, 0.6605671667062585, 0.23131987712026925, 0.35575476852451027, 0.3992428423138309, 0.7738049916515002, 0.5516795128145334, 0.6373058819629207, 0.9794084256691385 ] ],
    "weightDelta" : [ [ 0.001639194829090189, -1.490123176287139E-4, 0.0016012680750417834, -5.72484210855275E-4, 4.146705537769783E-4, -0.0014029541372188184, -0.001148252855741871, 0.0035988197983394736, 0.0012093567397257823, 0.006087482347738058 ], [ 0.0, 0.0, 0.0, 0.0, 0.0, 0.0, 0.0, 0.0, 0.0, 0.0 ], [ 0.004046482076054332, -0.00920630552589093, 0.0040837469840343775, 0.00811140394272312, 0.00340385196498276, 0.021311591909322268, 0.001861346033986802, -0.026601916956433713, 0.0023834004912842576, -0.033882261640573154 ], [ 0.02085305555298611, -0.006088274853623545, 0.021871912146381865, 0.0012389438580861032, 0.011399490099819238, -0.011057821334606486, -0.012962587128635746, 0.04536511387260661, 0.01589132420945245, 0.08322064170392512 ], [ -0.005592340602105301, -0.0019148017735850951, -0.00597046599105878, 0.0033525940847558013, -0.0023339156487331074, 0.013891041209377283, 0.005416792160634639, -0.028044648377112166, -0.004403005480459209, -0.04434650813905193 ], [ 0.0, 0.0, 0.0, 0.0, 0.0, 0.0, 0.0, 0.0, 0.0, 0.0 ], [ -0.027863222064059084, 0.022304496638148676, -0.028726201953957916, -0.015941990456580166, -0.017024496068469692, -0.028367774204336657, 0.009504630747354754, 0.003616317252931628, -0.020495019142800823, -0.02075862113890653 ], [ 0.0, 0.0, 0.0, 0.0, 0.0, 0.0, 0.0, 0.0, 0.0, 0.0 ], [ -0.013668142122037636, -3.368659484566098E-4, -0.01457475403374885, 0.00380915831660792, -0.006954632460914344, 0.021439983525300868, 0.010912576104358614, -0.0501198518338398, -0.010367138018952383, -0.08272479324506582 ], [ 0.0, 0.0, 0.0, 0.0, 0.0, 0.0, 0.0, 0.0, 0.0, 0.0 ] ],
    "gradients" : [ [ 0.0034984177725347725, -1.3240954602556566E-4, 0.003710569260602208, -7.558092693349403E-4, 0.0017067073183966435, -0.004735099043895697, -0.0026659202103588874, 0.011704694794425747, 0.0026614422745574085, 0.019581654036431712 ], [ 0.0, -0.0, 0.0, -0.0, 0.0, -0.0, -0.0, 0.0, 0.0, 0.0 ], [ 9.760985534216126E-5, -3.6943777083868118E-6, 1.0352912439672092E-4, -2.1087942676610342E-5, 4.7619085338513124E-5, -1.321146766215358E-4, -7.438222162310051E-5, 3.265743658969161E-4, 7.425728209493859E-5, 5.463505339076394E-4 ], [ 0.0646527230459746, -0.002447002692200345, 0.06857340156227348, -0.013967779305696579, 0.03154090870539088, -0.08750728671791436, -0.04926770106650729, 0.216309326125271, 0.04918494630077761, 0.36187995188528516 ], [ -0.02163614662361926, 8.188937223756133E-4, -0.022948208532943562, 0.004674341726480801, -0.010555220155332888, 0.029284466250826646, 0.016487522162455363, -0.07238829357233133, -0.016459828135649137, -0.12110375758760565 ], [ 0.0, -0.0, 0.0, -0.0, 0.0, -0.0, -0.0, 0.0, 0.0, 0.0 ], [ -0.06789971917182595, 0.0025698963289598115, -0.0720173024332518, 0.014669270645204319, -0.03312495967103094, 0.09190208723938324, 0.05174202893632951, -0.22717283675288727, -0.05165511805170707, -0.3800543263963052 ], [ 0.0, -0.0, 0.0, -0.0, 0.0, -0.0, -0.0, 0.0, 0.0, 0.0 ], [ -0.04615251936957677, 0.0017467994204803182, -0.04895130622093174, 0.009970936637853986, -0.022515562088923326, 0.06246731081002947, 0.035169880256235686, -0.15441299134017286, -0.035110805545251776, -0.25832897211414535 ], [ 0.0, -0.0, 0.0, -0.0, 0.0, -0.0, -0.0, 0.0, 0.0, 0.0 ] ]
  }, {
    "neurons" : [ {
      "neuronInput" : -0.01959167736390599,
      "neuronOutput" : -0.019589171099234075,
      "nodeDelta" : 0.019581654036431712
    }, {
      "neuronInput" : 0.0,
      "neuronOutput" : 0.0,
      "nodeDelta" : 0.0
    }, {
      "neuronInput" : -5.463507513545629E-4,
      "neuronOutput" : -5.46350696992822E-4,
      "nodeDelta" : 5.463505339076394E-4
    }, {
      "neuronInput" : 0.5634617959429473,
      "neuronOutput" : 0.5105414242459801,
      "nodeDelta" : 0.36187995188528516
    }, {
      "neuronInput" : 0.12358835530993262,
      "neuronOutput" : 0.12296294319715739,
      "nodeDelta" : -0.12110375758760565
    }, {
      "neuronInput" : 0.0,
      "neuronOutput" : 0.0,
      "nodeDelta" : 0.0
    }, {
      "neuronInput" : 0.5813092901188066,
      "neuronOutput" : 0.5236163977305529,
      "nodeDelta" : -0.3800543263963052
    }, {
      "neuronInput" : 0.0,
      "neuronOutput" : 0.0,
      "nodeDelta" : 0.0
    }, {
      "neuronInput" : 0.2880809107146354,
      "neuronOutput" : 0.2803675282799434,
      "nodeDelta" : -0.25832897211414535
    }, {
      "neuronInput" : 1.0,
      "neuronOutput" : 1.0,
      "nodeDelta" : 0.0
    } ],
    "numberOfNeurons" : 10,
    "weights" : null,
    "weightDelta" : null,
    "gradients" : null
  } ],
  "numberOfInputs" : 9,
  "numberOfOutputs" : 9,
  "numberOfLayers" : 4
}